-0.163885532556
0.716194632544
-0.0188032957064
-0.238307062962
0.268939881511
0.000658775601698
-0.0519288716613
0.789079336023
0.0642937702256
-0.0507744910783
0.567050580574
0.17711840389
-0.193552671981
0.0392734099322
0.152355386519
-0.267308006136
0.584444413602
-0.0108271963102
-0.140219817235
0.16436428595
0.467749769065
0.412947658545
0.0393785467575
0.466687040925
0.25299420206
0.213902086195
0.607464670356
-0.173627187495
0.0820734618068
0.121850775002
0.225785417484
0.573504059927
0.364688788163
0.175572613824
-0.0145711747418
0.729540079551
-0.0467993068475
0.257085650145
1.06605500714
0.322071575914
-0.405369500509
-0.0479360532428
0.880439790781
0.177065260784
-0.0491154957317
0.341524985419
-0.0679160666867
0.309653884248
0.0881262284403
-0.268633509597
0.0369115265433
0.00333697438009
-0.0841776612853
-0.244395801254
0.611539138756
-0.0978266509366
0.244660272215
-0.263656185296
0.439233021958
0.299245369337
0.658842455821
0.310406723728
0.0521998261281
0.503593622164
0.209915216008
0.793703882289
-0.0725763734983
-0.216683853718
0.307124228312
0.681346047051
-0.240891771428
0.614793046741
-0.0644403913362
0.468023048996
0.667480582487
-0.0834708787417
0.0472781927617
0.221845296739
0.232554715729
0.726313819827
0.373701804307
0.316080090886
-0.0329274073836
-0.0756163963306
-0.260828759389
0.122067151572
0.0063888320848
0.580602344285
0.00209668637643
0.467588840541
0.159279191978
-0.251081401001
-0.250355700779
0.106158028545
0.360702396642
-0.254891262461
0.519264584426
0.601475976044
0.00376835476084
-0.31599391397
0.288262885806
0.163999609731
0.0272785598606
0.346638232634
0.663712072739
-0.0434936139994

