-0.0353862045
-0.0499740698574
0.0815138459611
0.374617720514
0.429086519956
-0.0431454005637
-0.223711664318
0.286299888279
-0.0024433093911
-0.225117510065
0.768686258292
-0.0185383414629
0.135733664832
-0.126756814368
0.549877996812
0.382637820097
0.657135976696
0.490479906015
-0.403706741806
0.649941450891
0.403758657916
-0.0163936029709
0.261911140841
0.250936037946
0.401005474717
0.149532337693
1.21517054273
0.780732789783
0.480435755601
0.24044139342
-0.0835273949943
0.602259852222
0.0833108930964
-0.29935061433
-0.180291068258
0.87095123991
-0.264575744318
0.12498433624
0.364213356637
0.133292119714
-0.0558239656305
0.547406148596
0.310453135158
-0.252553999094
0.401603385266
0.294486033184
0.0765936429014
-0.343163872894
-0.13396418541
0.593473522911
-0.0155117905545
-0.104217007147
0.162103661839
0.709796560372
0.0774571439521
0.020881518737
0.538074542686
0.202981144099
-0.0281477073921
0.434662789468
-0.355601122967
-0.11808392896
0.801232873697
0.895925284594
-0.307825599905
0.536000443488
0.509505123399
0.564580123998
-0.428125632845
0.176220082823
0.10623472628
1.09505278421
0.571759342014
0.00516323556781
-0.241391413219
0.613056285015
0.299092594335
-0.205968063169
0.427432893313
0.0931671671876
0.688689774158
-0.0306105257504
0.344719409635
0.312399375309
-0.292781972265
-0.228012443059
0.08152291275
0.169084774949
0.283625505666
0.556773594348
0.550972652593
-0.127918815835
-0.0720248030349
-0.309170046876
0.51236213867
0.177220467882
0.533785184342
0.643842946666
0.181339306027
0.351655078665
0.167724806366
-0.194804910586
0.0868460473366
0.15426194898
0.78652470005
-0.399773221131

